\data\
ngram 1=5
ngram 2=7
ngram 3=7

\1-grams:
-0.90309	<unk>	0
0	<s>	-0.30103
-0.57209677	</s>	0
-0.4694344	a	-0.30103
-0.57209677	b	-0.30103

\2-grams:
-0.58682	a </s>	0
-0.5220179	b </s>	0
-0.37712017	<s> a	-0.30103
-0.37712017	a a	-0.30103
-0.2984526	b a	-0.30103
-0.41574958	<s> b	-0.30103
-0.58682	a b	-0.30103

\3-grams:
-0.42082912	b a </s>
-0.397617	a b </s>
-0.14885087	<s> a a
-0.33741078	b a a
-0.1240779	<s> b a
-0.2997394	a b a
-0.20102891	a a b

\end\