\data\
ngram 1=8
ngram 2=8
ngram 3=8
ngram 4=8
ngram 5=8

\1-grams:
-1.146128	<unk>	0
0	<s>	-0.30103
-0.8731268	</s>	0
-0.70679533	f	-0.30103
-0.70679533	o	-0.30103
-0.8731268	b	-0.30103
-0.8731268	a	-0.30103
-0.8731268	r	-0.30103

\2-grams:
-0.24644431	r </s>	0
-0.22314323	<s> f	-0.30103
-0.57694924	o f	-0.30103
-0.22314323	f o	-0.30103
-0.57694924	o o	-0.30103
-0.6314696	o b	-0.30103
-0.24644431	b a	-0.30103
-0.24644431	a r	-0.30103

\3-grams:
-0.105970904	a r </s>	0
-0.41743615	o o f	-0.30103
-0.097394995	<s> f o	-0.30103
-0.097394995	o f o	-0.30103
-0.19898036	f o o	-0.30103
-0.43555236	o o b	-0.30103
-0.105970904	o b a	-0.30103
-0.105970904	b a r	-0.30103

\4-grams:
-0.049761247	b a r </s>	0
-0.4462542	f o o f	-0.30103
-0.045972984	o o f o	-0.30103
-0.08819265	<s> f o o	-0.30103
-0.08819265	o f o o	-0.30103
-0.286727	f o o b	-0.30103
-0.049761247	o o b a	-0.30103
-0.049761247	o b a r	-0.30103

\5-grams:
-0.02416831	o b a r </s>
-0.36759996	<s> f o o f
-0.022378458	f o o f o
-0.041861475	o o f o o
-0.29381964	<s> f o o b
-0.12011856	o f o o b
-0.02416831	f o o b a
-0.02416831	o o b a r

\end\
